digraph Tree {
node [shape=box, style="filled, rounded", color="black", fontname=helvetica] ;
edge [fontname=helvetica] ;
0 [label=<gen__Drama &le; 0.5<br/>gini = 0.4894<br/>samples = 288<br/>value = [165, 123]>, fillcolor="#e5813941"] ;
1 [label=<gini = 0.4411<br/>samples = 134<br/>value = [90, 44]>, fillcolor="#e5813982"] ;
0 -> 1 [labeldistance=2.5, labelangle=45, headlabel="True"] ;
2 [label=<gini = 0.4997<br/>samples = 154<br/>value = [75, 79]>, fillcolor="#399de50d"] ;
0 -> 2 [labeldistance=2.5, labelangle=-45, headlabel="False"] ;
}